Language model created by QuickLM on Mon Aug 29 12:16:08 EDT 2016
Copyright (c) 1996-2010 Carnegie Mellon University and Alexander I. Rudnicky

The model is in standard ARPA format, designed by Doug Paul while he was at MITRE.

The code that was used to produce this language model is available in Open Source.
Please visit http://www.speech.cs.cmu.edu/tools/ for more information

The (fixed) discount mass is 0.5. The backoffs are computed using the ratio method.
This model based on a corpus of 22 sentences and 45 words

\data\
ngram 1=45
ngram 2=74
ngram 3=73

\1-grams:
-1.0726 </s> -0.3010
-1.0726 <s> -0.2571
-2.4150 ALL -0.2770
-2.4150 ANYBODY -0.2994
-2.1139 ARE -0.2960
-2.4150 BE -0.2994
-2.4150 BEEN -0.2977
-2.1139 CHANNEL -0.2626
-2.1139 CLOSED -0.2626
-2.1139 DOOR -0.2977
-2.4150 DOORS -0.2994
-2.4150 HAVE -0.2994
-2.4150 HOME -0.2626
-2.4150 IN -0.2770
-1.6368 IS -0.2717
-2.4150 IT -0.2626
-2.1139 LAB -0.2977
-2.1139 LIGHT -0.2626
-2.4150 LIKE -0.2626
-1.9379 MUSIC -0.2626
-2.1139 NEXT -0.2943
-2.1139 OF -0.2770
-2.4150 OFF -0.2770
-2.1139 ON -0.2770
-2.4150 OPEN -0.2626
-2.4150 PAUSE -0.2770
-2.4150 PLAY -0.2994
-2.1139 PREVIOUS -0.2943
-2.1139 RADIO -0.2626
-2.4150 RESUME -0.2770
-1.9379 SHED -0.2571
-2.4150 SOME -0.2960
-2.1139 SONG -0.2626
-2.4150 STOP -0.2770
-2.4150 TEMPERATURE -0.2994
-2.4150 THANK -0.2960
-1.2688 THE -0.2734
-2.4150 TIME -0.2909
-2.4150 TODAY'S -0.2977
-1.9379 TURN -0.2960
-2.1139 WEATHER -0.2608
-1.7160 WHAT -0.2840
-2.4150 WHO -0.2977
-2.4150 WILL -0.2770
-1.9379 YOU -0.2626

\2-grams:
-1.6435 <s> HAVE 0.0000
-1.1663 <s> IS -0.1249
-1.3424 <s> NEXT 0.0000
-1.6435 <s> PAUSE 0.0000
-1.6435 <s> PLAY 0.0000
-1.3424 <s> PREVIOUS 0.0000
-1.6435 <s> RESUME 0.0000
-1.6435 <s> STOP 0.0000
-1.6435 <s> THANK 0.0000
-1.1663 <s> TURN 0.0000
-0.9445 <s> WHAT 0.0000
-1.6435 <s> WHO 0.0000
-0.3010 ALL THE -0.2852
-0.3010 ANYBODY HOME 0.0000
-0.3010 ARE YOU 0.0000
-0.3010 BE LIKE 0.0000
-0.3010 BEEN CLOSED 0.0000
-0.3010 CHANNEL </s> -0.3010
-0.3010 CLOSED </s> -0.3010
-0.3010 DOOR OF 0.0000
-0.3010 DOORS BEEN 0.0000
-0.3010 HAVE ALL 0.0000
-0.3010 HOME </s> -0.3010
-0.3010 IN THE -0.2518
-1.0792 IS ANYBODY 0.0000
-1.0792 IS IT 0.0000
-0.6021 IS THE -0.2518
-1.0792 IS TODAY'S 0.0000
-0.3010 IT </s> -0.3010
-0.3010 LAB LIGHT 0.0000
-0.3010 LIGHT </s> -0.3010
-0.3010 LIKE </s> -0.3010
-0.3010 MUSIC </s> -0.3010
-0.6021 NEXT CHANNEL 0.0000
-0.6021 NEXT SONG 0.0000
-0.3010 OF THE -0.2518
-0.3010 OFF THE -0.2688
-0.3010 ON THE -0.2341
-0.3010 OPEN </s> -0.3010
-0.3010 PAUSE THE -0.2688
-0.3010 PLAY SOME 0.0000
-0.6021 PREVIOUS CHANNEL 0.0000
-0.6021 PREVIOUS SONG 0.0000
-0.3010 RADIO </s> -0.3010
-0.3010 RESUME THE -0.2688
-0.7782 SHED </s> -0.3010
-0.7782 SHED CLOSED 0.0000
-0.7782 SHED OPEN 0.0000
-0.3010 SOME MUSIC 0.0000
-0.3010 SONG </s> -0.3010
-0.3010 STOP THE -0.2688
-0.3010 TEMPERATURE IN 0.0000
-0.3010 THANK YOU 0.0000
-1.1461 THE DOOR 0.0000
-1.4472 THE DOORS 0.0000
-1.1461 THE LAB 0.0000
-1.1461 THE MUSIC 0.0000
-1.1461 THE RADIO 0.0000
-0.9700 THE SHED 0.0000
-1.4472 THE TEMPERATURE 0.0000
-1.4472 THE WEATHER -0.1761
-0.3010 TIME IS -0.2632
-0.3010 TODAY'S WEATHER -0.1761
-0.7782 TURN OFF 0.0000
-0.4771 TURN ON 0.0000
-0.6021 WEATHER </s> -0.3010
-0.6021 WEATHER BE 0.0000
-1.0000 WHAT ARE 0.0000
-0.6990 WHAT IS -0.1249
-1.0000 WHAT TIME 0.0000
-1.0000 WHAT WILL 0.0000
-0.3010 WHO ARE 0.0000
-0.3010 WILL THE -0.2852
-0.3010 YOU </s> -0.3010

\3-grams:
-0.3010 <s> HAVE ALL
-0.7782 <s> IS ANYBODY
-0.4771 <s> IS THE
-0.6021 <s> NEXT CHANNEL
-0.6021 <s> NEXT SONG
-0.3010 <s> PAUSE THE
-0.3010 <s> PLAY SOME
-0.6021 <s> PREVIOUS CHANNEL
-0.6021 <s> PREVIOUS SONG
-0.3010 <s> RESUME THE
-0.3010 <s> STOP THE
-0.3010 <s> THANK YOU
-0.7782 <s> TURN OFF
-0.4771 <s> TURN ON
-1.0000 <s> WHAT ARE
-0.6990 <s> WHAT IS
-1.0000 <s> WHAT TIME
-1.0000 <s> WHAT WILL
-0.3010 <s> WHO ARE
-0.3010 ALL THE DOORS
-0.3010 ANYBODY HOME </s>
-0.3010 ARE YOU </s>
-0.3010 BE LIKE </s>
-0.3010 BEEN CLOSED </s>
-0.3010 DOOR OF THE
-0.3010 DOORS BEEN CLOSED
-0.3010 HAVE ALL THE
-0.3010 IN THE SHED
-0.3010 IS ANYBODY HOME
-0.3010 IS IT </s>
-0.4771 IS THE DOOR
-0.7782 IS THE TEMPERATURE
-0.3010 IS TODAY'S WEATHER
-0.3010 LAB LIGHT </s>
-0.3010 NEXT CHANNEL </s>
-0.3010 NEXT SONG </s>
-0.3010 OF THE SHED
-0.3010 OFF THE LAB
-0.6021 ON THE LAB
-0.6021 ON THE RADIO
-0.3010 PAUSE THE MUSIC
-0.3010 PLAY SOME MUSIC
-0.3010 PREVIOUS CHANNEL </s>
-0.3010 PREVIOUS SONG </s>
-0.3010 RESUME THE MUSIC
-0.3010 SHED CLOSED </s>
-0.3010 SHED OPEN </s>
-0.3010 SOME MUSIC </s>
-0.3010 STOP THE RADIO
-0.3010 TEMPERATURE IN THE
-0.3010 THANK YOU </s>
-0.3010 THE DOOR OF
-0.3010 THE DOORS BEEN
-0.3010 THE LAB LIGHT
-0.3010 THE MUSIC </s>
-0.3010 THE RADIO </s>
-0.7782 THE SHED </s>
-0.7782 THE SHED CLOSED
-0.7782 THE SHED OPEN
-0.3010 THE TEMPERATURE IN
-0.3010 THE WEATHER BE
-0.3010 TIME IS IT
-0.3010 TODAY'S WEATHER </s>
-0.3010 TURN OFF THE
-0.3010 TURN ON THE
-0.3010 WEATHER BE LIKE
-0.3010 WHAT ARE YOU
-0.6021 WHAT IS THE
-0.6021 WHAT IS TODAY'S
-0.3010 WHAT TIME IS
-0.3010 WHAT WILL THE
-0.3010 WHO ARE YOU
-0.3010 WILL THE WEATHER

\end\
